Language model created by QuickLM on Wed Oct  8 17:38:54 EDT 2014
Copyright (c) 1996-2010 Carnegie Mellon University and Alexander I. Rudnicky

The model is in standard ARPA format, designed by Doug Paul while he was at MITRE.

The code that was used to produce this language model is available in Open Source.
Please visit http://www.speech.cs.cmu.edu/tools/ for more information

The (fixed) discount mass is 0.5. The backoffs are computed using the ratio method.
This model based on a corpus of 4 sentences and 8 words

\data\
ngram 1=8
ngram 2=12
ngram 3=14

\1-grams:
-0.7782 </s> -0.2218
-0.7782 <s> -0.1761
-1.6812 CORN -0.2218
-1.3802 EAH -0.2825
-1.3802 EAT -0.2825
-1.6812 GRASS -0.2218
-1.6812 HORN -0.2218
-1.6812 HRASS -0.2218

\2-grams:
-0.6021 </s> </s> -0.3010
-0.6021 <s> <s> -0.1761
-0.9031 <s> EAH 0.0000
-0.9031 <s> EAT 0.0000
-0.3010 CORN </s> -0.1761
-0.6021 EAH HORN 0.0000
-0.6021 EAH HRASS 0.0000
-0.6021 EAT CORN 0.0000
-0.6021 EAT GRASS 0.0000
-0.3010 GRASS </s> -0.1761
-0.3010 HORN </s> -0.1761
-0.3010 HRASS </s> -0.1761

\3-grams:
-0.6021 <s> <s> EAH
-0.6021 <s> <s> EAT
-0.6021 <s> EAH HORN
-0.6021 <s> EAH HRASS
-0.6021 <s> EAT CORN
-0.6021 <s> EAT GRASS
-0.3010 CORN </s> </s>
-0.3010 EAH HORN </s>
-0.3010 EAH HRASS </s>
-0.3010 EAT CORN </s>
-0.3010 EAT GRASS </s>
-0.3010 GRASS </s> </s>
-0.3010 HORN </s> </s>
-0.3010 HRASS </s> </s>

\end\
